0.42014891
0.47253323
0.4071351
0.42962357
0.12354439
0.32755136
0.23448615
0.10673068
-0.10922297
0.069225468
0.20704748
0.044695944
-0.37512708
0.21612729
0.027532008
-0.067102782
-0.45616949
0.47810644
0.0010309878
-0.15323099
-0.44668603
0.28166917
-0.055817559
-0.13223879
-0.26443636
-0.19110487
0.032181498
-0.50257146
-0.0043106438
-0.86604798
-0.11208817
0.14165658
0.1768325
-0.084024452
-0.20385024
0.032889433
0.15798703
0.093850069
-0.17418979
0.08436887
0.12090443
0.17657453
-0.048596196
0.11551753
-0.015575593
0.32370049
-0.12180437
-0.0091382405
-0.19560958
0.28111112
-0.20799939
-0.27895042
-0.51585627
-0.080827892
-0.12887175
0.078099109
-0.99841303
-0.72688776
-0.329492
0.17983177
-0.17842421
-0.42774823
-0.22084874
0.052629393
0.12328113
-0.012199994
-0.03789027
-0.27211395
0.24180964
0.069345124
0.15115413
-0.1829302
0.19066599
0.12292679
0.066393271
-0.21500285
0.1322131
-0.053800076
0.06746529
-0.16280204
0.11327931
-0.28780454
-0.0061256774
-0.12309033
0.14229099
-0.32349065
-0.032787595
-0.43641564
0.0008613583
-0.60270256
0.042399563
0.11631034
-0.019731533
-0.22984885
0.06336005
-0.066770956
0.099480413
-0.040560961
-0.046818029
0.02017132
0.1640837
0.087499745
-0.040344305
0.0059205159
0.22991031
0.13303286
-0.085816719
-0.022722771
0.2698392
0.14478527
0.0092372978
-0.61625195
0.18284348
0.11175976
0.21179491
0.032864198
-0.06115976
-0.18121581
0.32234907
0.15237151
-0.02930169
0.51857603
-0.00047547411
-0.098025084
-0.19101436
0.11746152
0.026350228
-0.15238632
-0.24013829
-0.081955455
-0.067883439
-0.013497788
-0.37119383
-0.32813075
-0.056573968
0.054041278
-0.53788978
-0.68454295
-0.10613615
0.14151217
-0.73716468
-1.0176895
-0.061639026
0.21515416
-0.76233101
-1.3369378
-0.040895667
-0.094860725
-0.82748932
-1.696292
-0.12391247
0.12069815
-0.89800614
-1.2022221
-0.035418559
0.069197468
-0.84121346
-0.87325668
-0.09170647
0.21419868
-0.74708956
-0.61403376
-0.067068331
0.16535936
-0.66689801
-0.37486169
0.039207909
0.081498228
-0.62369174
-0.041101772
0.06943287
-0.26074576
-0.59699363
0.11012938
0.067989953
0.0028850148
-0.6735391
0.16261753
-0.054022245
0.16616271
-0.53563845
-1.7394305
-1.024747
0.25670376
-0.071390733
-1.1995572
-0.42188811
0.049102884
0.22978945
-1.0181543
-0.2732248
0.099535763
0.23773745
-0.82091618
-0.06363
0.24206758
0.23288153
-0.41837901
0.057896551
0.25896087
0.11908258
0.20475064
0.091687232
0.25360417
0.1115881
0.58744675
-0.060069043
73.876755
0.073899098
1.2552828
0.23017071
0.1089237
-0.04103243
0.66423678
0.11469243
-0.017296625
0.017511917
0.093610473
-0.010559027
0.079971395
-0.013672542
0.0030065351
0.063817322
0.12435259
-0.042263579
0.018708792
0.16354801
0.14103027
-0.094933242
0.067416318
0.12831511
-0.07621745
-0.13526665
0.18536654
-0.071637154
0.26751077
-0.53803861
-0.32846731
-0.43431842
0.62571836
-0.099540293
-0.5548268
-0.53110904
0.1493988
0.057292081
-0.29521728
-0.32946649
0.069858961
0.12701097
-0.19142313
-0.21742888
-0.020862535
0.1362628
-0.11000922
-0.17735806
-0.021650136
0.087942787
-0.06091249
-0.084538214
0.059675273
0.081859194
-0.0061161639
-0.042084407
-0.010073967
0.1014826
0.1687652
-0.023806248
73.880539
-0.11025725
0.13673979
-0.042327758
0.099492937
-0.045964129
0.43730041
-0.034339584
-0.042022441
-0.013805215
0.3547737
-0.079009645
0.029851098
0.013391498
0.27606153
-0.089727886
-0.0057191588
0.048647404
0.25305322
-0.085086182
-0.047185767
0.089154921
0.21450882
0.01325164
-0.053672984
0.15518445
0.23459776
0.028823944
-0.11518655
-0.064905189
-0.1469143
-0.033350784
-0.0047126091
0.32363999
-0.43378794
-0.79688418
0.27070743
0.15801406
-0.16500221
-0.65627956
-0.021724684
0.19323084
-0.22375934
-0.50982386
-0.10692436
0.14355224
-0.22209115
-0.36390078
-0.14459272
0.036990803
-0.42413041
-0.24080783
-0.092684872
0.048666466
-0.49175161
-0.060922198
-0.21579945
-0.030913156
-0.69469029
0.020045446
-0.76248878
-0.23705252
-1.0130887
-0.12922779
0.12225883
-0.15441872
0.039435647
-0.1818175
-0.17103752
-0.12273453
0.11168338
-0.29459545
-0.068294331
-0.17520192
0.15110157
-0.38773131
0.083736099
-0.20510277
0.3764357
-0.39297017
-0.024244117
-0.2354082
0.38661492
-0.32345405
-0.34283736
-0.14930031
0.49096206
-0.22451495
0.058271892
-0.32492483
0.40624866
-0.40688831
0.13133377
-0.30282301
-0.43775705
-0.11970634
0.67700428
-0.11621679
-0.063939951
-0.046727043
0.21764302
0.07211332
-0.072100416
-0.14103171
0.16422778
0.009259657
-0.00090497575
-0.19254634
0.13623179
0.11081187
-0.090628237
-0.15231368
0.19456013
0.12043063
0.05111587
-0.19198669
0.18224944
0.34178993
0.71762061
-0.033425137
-0.021016952
0.46335897
1.0631098
-0.12300184
0.12531193
0.33371708
0.40437466
-0.14987174
3.2579632
0.41016281
0.021841472
-0.036944605
23.654177
0.33069733
-0.1364363
-0.26799124
34.106651
0.27963203
-0.52916408
-0.35966125
59.101173
0.14741883
-0.92192346
-0.33803615
52.840866
-0.073038973
-1.2519841
-0.41232264
0.19951022
-0.51665026
-1.5807065
-0.57878381
0.41586533
-0.040063806
-0.4340274
0.37415302
-0.25837082
-0.098586306
-0.06798508
0.35244694
-0.43876255
-0.08366254
-0.061619163
0.11828851
-0.44848275
-0.21209474
-0.17461288
0.17094213
-0.4002693
-0.15752071
-0.1812482
0.081375726
-0.41240546
0.021179449
-0.11354278
-0.020536851
-0.39002672
0.14665189
-0.53641546
0.035752732
-0.85445738
0.023894189
-1.3719654
0.023805318
0.093810387
0.16686821
-0.32955256
0.19436713
-0.15202136
0.23834111
-0.15980609
0.29421982
-0.13324556
0.22747771
-0.16632703
0.23743269
-0.090650797
0.18076362
-0.16902512
0.025983958
-0.015909065
0.25064003
-0.21067272
0.15459202
-0.49444723
0.34692457
-0.096890859
0.26929584
-0.11443385
0.24601056
-0.36293709
0.34666783
-0.16933624
-0.57850343
-0.93422389
-0.37598506
0.86827677
-0.01973265
-0.25637051
-0.12856302
0.39497524
0.20324434
0.15279235
-0.020393668
0.30517057
0.24309567
0.33680403
-0.11410212
0.26056978
0.098467223
0.13673438
-0.089336224
0.20598735
0.054807197
-0.17664944
-0.090379789
0.12522344
-0.062131815
-0.44574139
-0.09379252
-0.33169827
-0.31295747
-1.1396267
-0.05217186
0.10716001
-0.29474407
-0.35499418
0.064852342
-0.051020242
-0.11348478
-0.084329151
0.072862193
0.052818984
0.043951169
-0.041959547
0.17786838
0.0477315
0.13193008
0.055004667
0.081650816
0.019097289
0.21249771
0.24731682
0.13220949
-0.70489693
0.13694371
0.35261667
0.12198972
0.060347423
-0.15555575
0.12495226
0.049462959
0.34548113
-0.23906313
0.49235931
0.071742639
0.7376464
-0.32871354
0.4563573
0.090446882
0.30104226
-0.35492158
0.12628505
0.062311448
0.28069308
-0.42283633
0.04377567
0.077888079
0.26520634
-0.42184237
-0.01449586
-0.018824836
0.20812367
-0.36763442
0.22081013
-0.043289836
0.067333423
-0.013195795
0.6841433
0.015578669
-0.51756632
-0.052806567
0.25389621
-0.26937249
0.10806333
0.15580717
0.21247369
-0.1584876
-0.11308797
0.25552967
-0.20720525
-0.10407375
-0.1700176
0.19850832
-0.30210358
-0.11892644
-0.18989804
0.11717611
-0.3249048
-0.062963694
-0.13853903
-0.034909599
-0.62510419
-0.074187875
-0.36438775
-0.26644388
-0.71161532
-0.23930192
-0.14593446
-0.94341123
-1.3890101
-0.65149528
3.5441808e-05
0.065223947
-0.40292296
-0.74060684
0.15118882
-0.0061471118
0.052219525
-0.63582993
-0.10266369
0.073325358
0.23279373
-0.3145349
-0.11531164
0.066937901
0.31273523
-0.50494039
-0.18323255
0.099767253
0.22340012
-0.38518155
-0.20273764
0.085864678
0.067991458
-0.4664824
-0.028623773
0.19592531
0.23954794
-0.45195043
-0.94414508
-0.27158263
-1.2324228
-0.63300669
0.11442778
-0.091146424
-0.29988191
-0.28403082
-0.030712094
-0.013939746
-0.32160836
-0.11466222
-0.016526518
-0.013724158
-0.3421177
-0.18185538
-0.038008239
0.082728006
-0.37010148
-0.30233145
-0.18213978
0.29596987
-0.077021062
-0.31396911
-1.2711051
0.29196498
0.014045762
-0.38932833
-0.73585302
0.067567311
-0.092053741
-0.38994023
-0.53052312
0.50797123
0.75398362
0.15491921
0.17401217
0.18611763
0.45243335
0.049858425
-0.07125964
0.0067028734
0.17547105
0.080199525
-0.030047476
-0.048868265
0.006172182
0.0521596
-0.0084068421
-0.32588112
-0.27296534
-0.061383687
-0.044399578
-0.483233
-0.72260368
-0.051310733
0.019260027
-0.48335859
-1.046067
-0.20452721
-0.14623888
-0.40381023
-1.2559371
-0.37404925
0.11851368
0.25923988
-0.58836168
-0.40790531
-0.10476752
-0.28578287
-0.29929495
-0.4017286
-0.19691618
-0.43587935
-0.24358484
-0.31269673
-0.18650259
-0.48254079
-0.16114604
-0.091415785
1.3044813
-0.63800794
-0.30709183
0.038222108
9.1176825
-0.75226748
-0.34149382
0.077478632
-0.050914906
-0.94561195
-0.5328685
0.023374939
0.028043034
-0.043209158
-0.16730705
0.25289452
-0.036615744
-0.00873088
-0.018646151
0.23198482
-0.29879397
-0.0119297
-0.058687501
0.25840035
-0.23658828
-0.11823813
-0.01811903
0.095206179
-0.25117823
-0.078540266
-0.012511539
0.071565136
-0.25785643
-0.0083855446
-0.084761299
-0.014449673
-0.28523064
0.031804487
-0.23939529
0.057075601
-0.67716509
-0.032031279
-0.71003652
0.10554741
0.12901814
-0.030487686
-0.21212503
-0.012258714
-0.13169676
0.047657173
-0.10900997
-0.015850797
-0.043855842
0.10018314
0.00060259079
-0.029583599
-0.033068344
0.097951397
0.083497047
-0.094028585
-0.12650982
0.20558815
0.10850528
-0.039611511
-0.85264087
0.14842866
0.059526607
0.1947882
-0.27148902
-0.041802481
-0.28914312
0.26973206
-0.11706176
0.30798599
0.6784324
0.054072093
0.14817064
0.18037732
0.40134194
-0.13978396
-0.067240722
0.042087924
0.046912473
-0.1194751
-0.073483519
-0.076994769
0.030397888
-0.11626849
-0.081862919
-0.28182548
-0.030915735
-0.10601319
-0.05467359
-0.24443653
-0.37046257
-0.071852244
0.13155207
-0.089788184
-0.57502562
0.048424356
73.862679
0.13595016
-0.61749786
0.12207241
0.11594559
0.01687119
-0.29883197
-0.10871933
0.098971263
-0.038594991
-0.12314012
-0.14268698
0.1970586
-0.12382454
-0.041713946
-0.13692036
0.095826
-0.32848945
-0.16664602
-0.037152831
0.079465933
-0.55702084
-0.36449051
-0.030858031
-0.03968209
-0.73301411
-0.72060347
-0.02195443
0.071612649
-1.0305282
-1.1672642
-0.11379357
0.22985946
0.26163521
-1.0790548
0.033469431
0.5444687
-0.88751769
-0.80555505
0.10245658
0.42171967
-0.45847282
-0.47561413
-0.077647939
0.57013708
0.98230803
-0.37552774
-0.035462495
0.56545401
-0.62338197
-0.39523432
0.053730462
0.68880737
-0.71535975
-0.47802231
-0.041816212
0.76749718
-0.75098902
-0.4673028
-0.13698298
0.25578842
-0.78598416
-1.3943148
-0.23353581
0.12139296
-0.91691369
-0.39900616
-0.072362021
0.12520941
-0.76067567
-0.056707513
0.040250544
0.10546833
-0.27874121
-0.026845351
-0.044846013
0.034904413
0.10210578
0.054415323
-0.030406691
-0.085943699
0.31062862
0.16287459
-0.096895263
-0.83733112
0.29455251
0.25558791
-0.18465593
0.10661345
0.2666167
0.40701309
-0.10650075
0.35941076
1.2556673
0.6572513
3.4135656
1.1684145
-0.48899364
1.2057383
0.88347471
1.5948093
0.99699694
0.98219943
1.1928018
0.7397415
0.68396711
0.54944563
2.8164511
-1.2537761
-0.67167521
-3.4079878
-1.1682266
0.49086976
-1.2065473
-0.88233352
-1.5965997
-0.99247885
-0.98569381
-1.1923579
-0.73975736
-0.67469466
-0.55021322
-2.8253806
-2.3118129
-1.4992921
-7.7499304
-1.1471733
-1.000831
0.6616984
-1.1182461
2.0922108
-1.8721397
-1.3074169
0.63444543
-5.3224916
0.092146873
-3.8227906
-6.1901951
-5.5151539
5.514895
